<?xml version="1.0"?>
<opencv_storage>
<cascade>
  <stageType>BOOST</stageType>
  <featureType>HAAR</featureType>
  <height>24</height>
  <width>24</width>
  <stageParams>
    <boostType>GAB</boostType>
    <minHitRate>9.9500000476837158e-01</minHitRate>
    <maxFalseAlarm>5.0000000000000000e-01</maxFalseAlarm>
    <weightTrimRate>9.4999998807907104e-01</weightTrimRate>
    <maxDepth>1</maxDepth>
    <maxWeakCount>100</maxWeakCount></stageParams>
  <featureParams>
    <maxCatCount>0</maxCatCount>
    <featSize>1</featSize>
    <mode>BASIC</mode></featureParams>
  <stageNum>13</stageNum>
  <stages>
    <!-- stage 0 -->
    <_>
      <maxWeakCount>3</maxWeakCount>
      <stageThreshold>-1.2265945672988892e+00</stageThreshold>
      <weakClassifiers>
        <_>
          <internalNodes>
            0 -1 15 -2.5917649269104004e-01</internalNodes>
          <leafValues>
            8.3333331346511841e-01 -9.2968750000000000e-01</leafValues></_>
        <_>
          <internalNodes>
            0 -1 42 -1.2575690448284149e-01</internalNodes>
          <leafValues>
            8.5287445783615112e-01 -8.4523731470108032e-01</leafValues></_>
        <_>
          <internalNodes>
            0 -1 9 -3.5689473152160645e-02</internalNodes>
          <leafValues>
            5.4833024740219116e-01 -9.3077391386032104e-01</leafValues></_></weakClassifiers></_>
    <!-- stage 1 -->
    <_>
      <maxWeakCount>3</maxWeakCount>
      <stageThreshold>-1.2934204339981079e+00</stageThreshold>
      <weakClassifiers>
        <_>
          <internalNodes>
            0 -1 17 -3.5005819797515869e-01</internalNodes>
          <leafValues>
            7.9687500000000000e-01 -8.9807695150375366e-01</leafValues></_>
        <_>
          <internalNodes>
            0 -1 41 8.0254353582859039e-02</internalNodes>
          <leafValues>
            -8.9605587720870972e-01 5.3320211172103882e-01</leafValues></_>
        <_>
          <internalNodes>
            0 -1 47 5.1611289381980896e-02</internalNodes>
          <leafValues>
            -9.2854565382003784e-01 5.0926530361175537e-01</leafValues></_></weakClassifiers></_>
    <!-- stage 2 -->
    <_>
      <maxWeakCount>5</maxWeakCount>
      <stageThreshold>-1.3510956764221191e+00</stageThreshold>
      <weakClassifiers>
        <_>
          <internalNodes>
            0 -1 16 -3.5613712668418884e-01</internalNodes>
          <leafValues>
            6.6972476243972778e-01 -8.5457980632781982e-01</leafValues></_>
        <_>
          <internalNodes>
            0 -1 43 -6.8410694599151611e-02</internalNodes>
          <leafValues>
            6.7370194196701050e-01 -7.7845597267150879e-01</leafValues></_>
        <_>
          <internalNodes>
            0 -1 57 -2.9665930196642876e-04</internalNodes>
          <leafValues>
            -1. 2.2608993947505951e-01</leafValues></_>
        <_>
          <internalNodes>
            0 -1 46 8.1459045410156250e-02</internalNodes>
          <leafValues>
            -5.1339823007583618e-01 6.8255698680877686e-01</leafValues></_>
        <_>
          <internalNodes>
            0 -1 32 -1.1897829174995422e-01</internalNodes>
          <leafValues>
            5.8642894029617310e-01 -6.2670677900314331e-01</leafValues></_></weakClassifiers></_>
    <!-- stage 3 -->
    <_>
      <maxWeakCount>3</maxWeakCount>
      <stageThreshold>-7.3483979701995850e-01</stageThreshold>
      <weakClassifiers>
        <_>
          <internalNodes>
            0 -1 18 -7.5770616531372070e-02</internalNodes>
          <leafValues>
            1.9796954095363617e-01 -8.9701336622238159e-01</leafValues></_>
        <_>
          <internalNodes>
            0 -1 53 5.0539209041744471e-04</internalNodes>
          <leafValues>
            -3.4825988113880157e-03 -9.5029497146606445e-01</leafValues></_>
        <_>
          <internalNodes>
            0 -1 51 -3.7657940993085504e-04</internalNodes>
          <leafValues>
            -1. 1.6565620899200439e-01</leafValues></_></weakClassifiers></_>
    <!-- stage 4 -->
    <_>
      <maxWeakCount>4</maxWeakCount>
      <stageThreshold>-1.6137117147445679e+00</stageThreshold>
      <weakClassifiers>
        <_>
          <internalNodes>
            0 -1 51 6.0558435507118702e-04</internalNodes>
          <leafValues>
            -9.2024542391300201e-02 -9.5249408483505249e-01</leafValues></_>
        <_>
          <internalNodes>
            0 -1 48 -5.4962444119155407e-04</internalNodes>
          <leafValues>
            -9.4091892242431641e-01 4.3913025408983231e-02</leafValues></_>
        <_>
          <internalNodes>
            0 -1 29 1.1783733963966370e-02</internalNodes>
          <leafValues>
            -9.2135065793991089e-01 2.7050605416297913e-01</leafValues></_>
        <_>
          <internalNodes>
            0 -1 55 -3.4014173434115946e-04</internalNodes>
          <leafValues>
            -1. 2.1621999144554138e-01</leafValues></_></weakClassifiers></_>
    <!-- stage 5 -->
    <_>
      <maxWeakCount>4</maxWeakCount>
      <stageThreshold>-1.0774656534194946e+00</stageThreshold>
      <weakClassifiers>
        <_>
          <internalNodes>
            0 -1 12 -5.5670756101608276e-01</internalNodes>
          <leafValues>
            2.8695651888847351e-01 -8.2146251201629639e-01</leafValues></_>
        <_>
          <internalNodes>
            0 -1 51 6.0839968500658870e-04</internalNodes>
          <leafValues>
            2.2617511451244354e-01 -8.4494471549987793e-01</leafValues></_>
        <_>
          <internalNodes>
            0 -1 34 7.2243236005306244e-02</internalNodes>
          <leafValues>
            -7.2479504346847534e-01 4.2615374922752380e-01</leafValues></_>
        <_>
          <internalNodes>
            0 -1 54 3.4041295293718576e-04</internalNodes>
          <leafValues>
            2.4261675775051117e-01 -9.8671120405197144e-01</leafValues></_></weakClassifiers></_>
    <!-- stage 6 -->
    <_>
      <maxWeakCount>4</maxWeakCount>
      <stageThreshold>-1.3001217842102051e+00</stageThreshold>
      <weakClassifiers>
        <_>
          <internalNodes>
            0 -1 13 -8.1730526685714722e-01</internalNodes>
          <leafValues>
            9.4871795177459717e-01 -7.6970767974853516e-01</leafValues></_>
        <_>
          <internalNodes>
            0 -1 11 -2.6899039745330811e-02</internalNodes>
          <leafValues>
            2.1363678574562073e-01 -9.2831313610076904e-01</leafValues></_>
        <_>
          <internalNodes>
            0 -1 58 -1.8456162069924176e-04</internalNodes>
          <leafValues>
            -1. 1.8347981572151184e-01</leafValues></_>
        <_>
          <internalNodes>
            0 -1 50 -4.3077633017674088e-04</internalNodes>
          <leafValues>
            -9.0530031919479370e-01 2.1441917121410370e-01</leafValues></_></weakClassifiers></_>
    <!-- stage 7 -->
    <_>
      <maxWeakCount>5</maxWeakCount>
      <stageThreshold>-1.4480751752853394e+00</stageThreshold>
      <weakClassifiers>
        <_>
          <internalNodes>
            0 -1 38 -1.5243705362081528e-02</internalNodes>
          <leafValues>
            -1.6551724076271057e-01 -8.9293849468231201e-01</leafValues></_>
        <_>
          <internalNodes>
            0 -1 10 -9.9330488592386246e-03</internalNodes>
          <leafValues>
            4.9997493624687195e-01 -5.4003739356994629e-01</leafValues></_>
        <_>
          <internalNodes>
            0 -1 49 -2.8169009601697326e-04</internalNodes>
          <leafValues>
            -8.9935773611068726e-01 2.2993943095207214e-01</leafValues></_>
        <_>
          <internalNodes>
            0 -1 22 -1.6353614628314972e-02</internalNodes>
          <leafValues>
            4.8549443483352661e-01 -5.1307898759841919e-01</leafValues></_>
        <_>
          <internalNodes>
            0 -1 21 -3.9322080556303263e-04</internalNodes>
          <leafValues>
            -9.6109670400619507e-01 2.6804032921791077e-01</leafValues></_></weakClassifiers></_>
    <!-- stage 8 -->
    <_>
      <maxWeakCount>5</maxWeakCount>
      <stageThreshold>-1.4024041891098022e+00</stageThreshold>
      <weakClassifiers>
        <_>
          <internalNodes>
            0 -1 20 -1.3184441253542900e-02</internalNodes>
          <leafValues>
            -2.8610354661941528e-01 -9.0761548280715942e-01</leafValues></_>
        <_>
          <internalNodes>
            0 -1 14 -1.6924489289522171e-02</internalNodes>
          <leafValues>
            2.0890753716230392e-02 -9.5723283290863037e-01</leafValues></_>
        <_>
          <internalNodes>
            0 -1 33 4.0521338582038879e-02</internalNodes>
          <leafValues>
            -9.8138332366943359e-01 1.2744608521461487e-01</leafValues></_>
        <_>
          <internalNodes>
            0 -1 36 -3.2084614038467407e-02</internalNodes>
          <leafValues>
            2.3725861310958862e-01 -8.9254373311996460e-01</leafValues></_>
        <_>
          <internalNodes>
            0 -1 58 2.5940127670764923e-04</internalNodes>
          <leafValues>
            2.4941815435886383e-01 -7.2598665952682495e-01</leafValues></_></weakClassifiers></_>
    <!-- stage 9 -->
    <_>
      <maxWeakCount>5</maxWeakCount>
      <stageThreshold>-1.2694638967514038e+00</stageThreshold>
      <weakClassifiers>
        <_>
          <internalNodes>
            0 -1 35 -2.4175350368022919e-01</internalNodes>
          <leafValues>
            6.4444446563720703e-01 -7.6669633388519287e-01</leafValues></_>
        <_>
          <internalNodes>
            0 -1 7 1.2606087327003479e-01</internalNodes>
          <leafValues>
            5.8892454952001572e-02 -9.2370754480361938e-01</leafValues></_>
        <_>
          <internalNodes>
            0 -1 1 -1.9746250472962856e-04</internalNodes>
          <leafValues>
            -8.9312207698822021e-01 1.6958169639110565e-01</leafValues></_>
        <_>
          <internalNodes>
            0 -1 5 3.0531291849911213e-04</internalNodes>
          <leafValues>
            2.4403475224971771e-01 -8.9553815126419067e-01</leafValues></_>
        <_>
          <internalNodes>
            0 -1 8 1.4454158372245729e-04</internalNodes>
          <leafValues>
            1.6429641842842102e-01 -9.7473001480102539e-01</leafValues></_></weakClassifiers></_>
    <!-- stage 10 -->
    <_>
      <maxWeakCount>7</maxWeakCount>
      <stageThreshold>-1.4725084304809570e+00</stageThreshold>
      <weakClassifiers>
        <_>
          <internalNodes>
            0 -1 44 -3.1180500984191895e-01</internalNodes>
          <leafValues>
            5.1724139600992203e-02 -7.9657793045043945e-01</leafValues></_>
        <_>
          <internalNodes>
            0 -1 40 7.6832966879010201e-03</internalNodes>
          <leafValues>
            -5.1081329584121704e-01 5.2024143934249878e-01</leafValues></_>
        <_>
          <internalNodes>
            0 -1 52 2.3063959088176489e-04</internalNodes>
          <leafValues>
            2.2577390074729919e-01 -9.4824188947677612e-01</leafValues></_>
        <_>
          <internalNodes>
            0 -1 3 -2.7468410553410649e-04</internalNodes>
          <leafValues>
            -1. 1.5479350090026855e-01</leafValues></_>
        <_>
          <internalNodes>
            0 -1 2 2.2221592371352017e-04</internalNodes>
          <leafValues>
            1.4745497703552246e-01 -1.</leafValues></_>
        <_>
          <internalNodes>
            0 -1 19 -8.3029661327600479e-03</internalNodes>
          <leafValues>
            2.0869871973991394e-01 -8.6325418949127197e-01</leafValues></_>
        <_>
          <internalNodes>
            0 -1 56 1.4870020095258951e-05</internalNodes>
          <leafValues>
            -6.3307195901870728e-01 2.7217757701873779e-01</leafValues></_></weakClassifiers></_>
    <!-- stage 11 -->
    <_>
      <maxWeakCount>7</maxWeakCount>
      <stageThreshold>-1.4587552547454834e+00</stageThreshold>
      <weakClassifiers>
        <_>
          <internalNodes>
            0 -1 39 -1.7634472250938416e-01</internalNodes>
          <leafValues>
            6.5217390656471252e-02 -7.7881038188934326e-01</leafValues></_>
        <_>
          <internalNodes>
            0 -1 31 1.1337623436702415e-04</internalNodes>
          <leafValues>
            2.3328091949224472e-02 -9.1715085506439209e-01</leafValues></_>
        <_>
          <internalNodes>
            0 -1 37 1.7067013308405876e-02</internalNodes>
          <leafValues>
            -7.3810178041458130e-01 1.9147621095180511e-01</leafValues></_>
        <_>
          <internalNodes>
            0 -1 6 -5.1776284817606211e-04</internalNodes>
          <leafValues>
            -8.5178667306900024e-01 2.1924185752868652e-01</leafValues></_>
        <_>
          <internalNodes>
            0 -1 27 1.3939404743723571e-04</internalNodes>
          <leafValues>
            1.9275327026844025e-01 -7.9773122072219849e-01</leafValues></_>
        <_>
          <internalNodes>
            0 -1 4 1.1174305109307170e-04</internalNodes>
          <leafValues>
            1.8109172582626343e-01 -8.7714314460754395e-01</leafValues></_>
        <_>
          <internalNodes>
            0 -1 0 -1.1089535430073738e-02</internalNodes>
          <leafValues>
            6.7012816667556763e-01 -3.0528891086578369e-01</leafValues></_></weakClassifiers></_>
    <!-- stage 12 -->
    <_>
      <maxWeakCount>7</maxWeakCount>
      <stageThreshold>-1.8165867328643799e+00</stageThreshold>
      <weakClassifiers>
        <_>
          <internalNodes>
            0 -1 28 -6.5372693538665771e-01</internalNodes>
          <leafValues>
            3.5135135054588318e-01 -7.8427785634994507e-01</leafValues></_>
        <_>
          <internalNodes>
            0 -1 45 -1.2849699705839157e-02</internalNodes>
          <leafValues>
            4.1499015688896179e-01 -5.3588885068893433e-01</leafValues></_>
        <_>
          <internalNodes>
            0 -1 24 -1.2872669321950525e-04</internalNodes>
          <leafValues>
            -8.8295155763626099e-01 1.7917677760124207e-01</leafValues></_>
        <_>
          <internalNodes>
            0 -1 23 1.9885299843735993e-04</internalNodes>
          <leafValues>
            2.3588068783283234e-01 -6.9204294681549072e-01</leafValues></_>
        <_>
          <internalNodes>
            0 -1 30 2.5970591232180595e-02</internalNodes>
          <leafValues>
            -4.1718155145645142e-01 4.6207910776138306e-01</leafValues></_>
        <_>
          <internalNodes>
            0 -1 25 -1.2409160262905061e-04</internalNodes>
          <leafValues>
            -8.9718002080917358e-01 2.3154592514038086e-01</leafValues></_>
        <_>
          <internalNodes>
            0 -1 26 1.3065827079117298e-04</internalNodes>
          <leafValues>
            2.0208172500133514e-01 -8.0704021453857422e-01</leafValues></_></weakClassifiers></_></stages>
  <features>
    <_>
      <rects>
        <_>
          0 0 2 21 -1.</_>
        <_>
          1 0 1 21 2.</_></rects>
      <tilted>0</tilted></_>
    <_>
      <rects>
        <_>
          0 0 4 1 -1.</_>
        <_>
          2 0 2 1 2.</_></rects>
      <tilted>0</tilted></_>
    <_>
      <rects>
        <_>
          0 0 2 2 -1.</_>
        <_>
          0 1 2 1 2.</_></rects>
      <tilted>0</tilted></_>
    <_>
      <rects>
        <_>
          0 0 2 3 -1.</_>
        <_>
          0 1 2 1 3.</_></rects>
      <tilted>0</tilted></_>
    <_>
      <rects>
        <_>
          0 0 4 2 -1.</_>
        <_>
          0 0 2 1 2.</_>
        <_>
          2 1 2 1 2.</_></rects>
      <tilted>0</tilted></_>
    <_>
      <rects>
        <_>
          0 0 4 2 -1.</_>
        <_>
          2 0 2 2 2.</_></rects>
      <tilted>0</tilted></_>
    <_>
      <rects>
        <_>
          0 0 6 3 -1.</_>
        <_>
          2 0 2 3 3.</_></rects>
      <tilted>0</tilted></_>
    <_>
      <rects>
        <_>
          0 0 22 22 -1.</_>
        <_>
          11 0 11 22 2.</_></rects>
      <tilted>0</tilted></_>
    <_>
      <rects>
        <_>
          0 1 4 2 -1.</_>
        <_>
          0 1 2 1 2.</_>
        <_>
          2 2 2 1 2.</_></rects>
      <tilted>0</tilted></_>
    <_>
      <rects>
        <_>
          0 2 8 19 -1.</_>
        <_>
          4 2 4 19 2.</_></rects>
      <tilted>0</tilted></_>
    <_>
      <rects>
        <_>
          0 3 2 17 -1.</_>
        <_>
          1 3 1 17 2.</_></rects>
      <tilted>0</tilted></_>
    <_>
      <rects>
        <_>
          0 3 6 21 -1.</_>
        <_>
          3 3 3 21 2.</_></rects>
      <tilted>0</tilted></_>
    <_>
      <rects>
        <_>
          0 6 24 12 -1.</_>
        <_>
          8 6 8 12 3.</_></rects>
      <tilted>0</tilted></_>
    <_>
      <rects>
        <_>
          0 6 24 15 -1.</_>
        <_>
          8 6 8 15 3.</_></rects>
      <tilted>0</tilted></_>
    <_>
      <rects>
        <_>
          0 7 8 12 -1.</_>
        <_>
          4 7 4 12 2.</_></rects>
      <tilted>0</tilted></_>
    <_>
      <rects>
        <_>
          0 7 24 10 -1.</_>
        <_>
          8 7 8 10 3.</_></rects>
      <tilted>0</tilted></_>
    <_>
      <rects>
        <_>
          0 8 24 8 -1.</_>
        <_>
          8 8 8 8 3.</_></rects>
      <tilted>0</tilted></_>
    <_>
      <rects>
        <_>
          0 8 24 11 -1.</_>
        <_>
          8 8 8 11 3.</_></rects>
      <tilted>0</tilted></_>
    <_>
      <rects>
        <_>
          0 11 12 5 -1.</_>
        <_>
          6 11 6 5 2.</_></rects>
      <tilted>0</tilted></_>
    <_>
      <rects>
        <_>
          0 14 10 5 -1.</_>
        <_>
          5 14 5 5 2.</_></rects>
      <tilted>0</tilted></_>
    <_>
      <rects>
        <_>
          0 14 12 1 -1.</_>
        <_>
          6 14 6 1 2.</_></rects>
      <tilted>0</tilted></_>
    <_>
      <rects>
        <_>
          0 15 2 6 -1.</_>
        <_>
          0 18 2 3 2.</_></rects>
      <tilted>0</tilted></_>
    <_>
      <rects>
        <_>
          0 15 14 1 -1.</_>
        <_>
          7 15 7 1 2.</_></rects>
      <tilted>0</tilted></_>
    <_>
      <rects>
        <_>
          0 19 1 4 -1.</_>
        <_>
          0 21 1 2 2.</_></rects>
      <tilted>0</tilted></_>
    <_>
      <rects>
        <_>
          0 20 2 2 -1.</_>
        <_>
          0 21 2 1 2.</_></rects>
      <tilted>0</tilted></_>
    <_>
      <rects>
        <_>
          0 22 4 2 -1.</_>
        <_>
          0 22 2 1 2.</_>
        <_>
          2 23 2 1 2.</_></rects>
      <tilted>0</tilted></_>
    <_>
      <rects>
        <_>
          0 23 4 1 -1.</_>
        <_>
          2 23 2 1 2.</_></rects>
      <tilted>0</tilted></_>
    <_>
      <rects>
        <_>
          1 0 3 1 -1.</_>
        <_>
          2 0 1 1 3.</_></rects>
      <tilted>0</tilted></_>
    <_>
      <rects>
        <_>
          1 2 21 17 -1.</_>
        <_>
          8 2 7 17 3.</_></rects>
      <tilted>0</tilted></_>
    <_>
      <rects>
        <_>
          1 14 9 10 -1.</_>
        <_>
          1 19 9 5 2.</_></rects>
      <tilted>0</tilted></_>
    <_>
      <rects>
        <_>
          1 20 20 4 -1.</_>
        <_>
          1 22 20 2 2.</_></rects>
      <tilted>0</tilted></_>
    <_>
      <rects>
        <_>
          2 0 3 1 -1.</_>
        <_>
          3 0 1 1 3.</_></rects>
      <tilted>0</tilted></_>
    <_>
      <rects>
        <_>
          2 0 19 10 -1.</_>
        <_>
          2 5 19 5 2.</_></rects>
      <tilted>0</tilted></_>
    <_>
      <rects>
        <_>
          2 1 22 21 -1.</_>
        <_>
          13 1 11 21 2.</_></rects>
      <tilted>0</tilted></_>
    <_>
      <rects>
        <_>
          2 16 19 8 -1.</_>
        <_>
          2 20 19 4 2.</_></rects>
      <tilted>0</tilted></_>
    <_>
      <rects>
        <_>
          3 4 16 18 -1.</_>
        <_>
          3 4 8 9 2.</_>
        <_>
          11 13 8 9 2.</_></rects>
      <tilted>0</tilted></_>
    <_>
      <rects>
        <_>
          4 0 18 8 -1.</_>
        <_>
          4 4 18 4 2.</_></rects>
      <tilted>0</tilted></_>
    <_>
      <rects>
        <_>
          4 4 20 20 -1.</_>
        <_>
          4 14 20 10 2.</_></rects>
      <tilted>0</tilted></_>
    <_>
      <rects>
        <_>
          4 10 9 5 -1.</_>
        <_>
          7 10 3 5 3.</_></rects>
      <tilted>0</tilted></_>
    <_>
      <rects>
        <_>
          5 4 14 18 -1.</_>
        <_>
          5 4 7 9 2.</_>
        <_>
          12 13 7 9 2.</_></rects>
      <tilted>0</tilted></_>
    <_>
      <rects>
        <_>
          6 22 11 2 -1.</_>
        <_>
          6 23 11 1 2.</_></rects>
      <tilted>0</tilted></_>
    <_>
      <rects>
        <_>
          7 12 8 12 -1.</_>
        <_>
          7 18 8 6 2.</_></rects>
      <tilted>0</tilted></_>
    <_>
      <rects>
        <_>
          10 0 3 24 -1.</_>
        <_>
          10 8 3 8 3.</_></rects>
      <tilted>0</tilted></_>
    <_>
      <rects>
        <_>
          10 0 4 12 -1.</_>
        <_>
          10 6 4 6 2.</_></rects>
      <tilted>0</tilted></_>
    <_>
      <rects>
        <_>
          10 0 6 24 -1.</_>
        <_>
          10 8 6 8 3.</_></rects>
      <tilted>0</tilted></_>
    <_>
      <rects>
        <_>
          11 5 4 4 -1.</_>
        <_>
          11 7 4 2 2.</_></rects>
      <tilted>0</tilted></_>
    <_>
      <rects>
        <_>
          12 9 12 5 -1.</_>
        <_>
          18 9 6 5 2.</_></rects>
      <tilted>0</tilted></_>
    <_>
      <rects>
        <_>
          14 2 10 17 -1.</_>
        <_>
          19 2 5 17 2.</_></rects>
      <tilted>0</tilted></_>
    <_>
      <rects>
        <_>
          15 0 9 1 -1.</_>
        <_>
          18 0 3 1 3.</_></rects>
      <tilted>0</tilted></_>
    <_>
      <rects>
        <_>
          16 1 8 2 -1.</_>
        <_>
          16 1 4 1 2.</_>
        <_>
          20 2 4 1 2.</_></rects>
      <tilted>0</tilted></_>
    <_>
      <rects>
        <_>
          17 0 6 2 -1.</_>
        <_>
          19 0 2 2 3.</_></rects>
      <tilted>0</tilted></_>
    <_>
      <rects>
        <_>
          19 0 4 2 -1.</_>
        <_>
          21 0 2 2 2.</_></rects>
      <tilted>0</tilted></_>
    <_>
      <rects>
        <_>
          20 1 4 2 -1.</_>
        <_>
          20 2 4 1 2.</_></rects>
      <tilted>0</tilted></_>
    <_>
      <rects>
        <_>
          20 17 4 6 -1.</_>
        <_>
          20 17 2 3 2.</_>
        <_>
          22 20 2 3 2.</_></rects>
      <tilted>0</tilted></_>
    <_>
      <rects>
        <_>
          20 20 4 4 -1.</_>
        <_>
          20 20 2 2 2.</_>
        <_>
          22 22 2 2 2.</_></rects>
      <tilted>0</tilted></_>
    <_>
      <rects>
        <_>
          20 22 4 2 -1.</_>
        <_>
          22 22 2 2 2.</_></rects>
      <tilted>0</tilted></_>
    <_>
      <rects>
        <_>
          22 12 2 1 -1.</_>
        <_>
          23 12 1 1 2.</_></rects>
      <tilted>0</tilted></_>
    <_>
      <rects>
        <_>
          22 18 2 4 -1.</_>
        <_>
          22 20 2 2 2.</_></rects>
      <tilted>0</tilted></_>
    <_>
      <rects>
        <_>
          23 20 1 4 -1.</_>
        <_>
          23 22 1 2 2.</_></rects>
      <tilted>0</tilted></_></features></cascade>
</opencv_storage>
